Language model created by QuickLM on Sat Nov  4 23:27:18 EDT 2023
Copyright (c) 1996-2010 Carnegie Mellon University and Alexander I. Rudnicky

The model is in standard ARPA format, designed by Doug Paul while he was at MITRE.

The code that was used to produce this language model is available in Open Source.
Please visit http://www.speech.cs.cmu.edu/tools/ for more information

The (fixed) discount mass is 0.5. The backoffs are computed using the ratio method.
This model based on a corpus of 14 sentences and 13 words

\data\
ngram 1=13
ngram 2=25
ngram 3=36

\1-grams:
-1.0122 </s> -0.3010
-1.0122 <s> -0.2566
-1.8573 BATHROOM -0.2566
-1.8573 BEDROOM -0.2566
-1.8573 CLOSET -0.2566
-1.8573 HALLWAY -0.2566
-1.8573 KITCHEN -0.2566
-1.0122 LIGHTS -0.2566
-1.8573 LIVING -0.2950
-1.3133 OFF -0.2566
-1.3133 ON -0.2566
-1.8573 PANTRY -0.2566
-1.8573 ROOM -0.2566

\2-grams:
-0.6021 <s> OFF -0.0000
-0.6021 <s> ON -0.0000
-0.3010 BATHROOM LIGHTS 0.0000
-0.3010 BEDROOM LIGHTS 0.0000
-0.3010 CLOSET LIGHTS 0.0000
-0.3010 HALLWAY LIGHTS 0.0000
-0.3010 KITCHEN LIGHTS 0.0000
-0.3010 LIGHTS </s> -0.3010
-0.3010 LIVING ROOM 0.0000
-1.1461 OFF BATHROOM 0.0000
-1.1461 OFF BEDROOM 0.0000
-1.1461 OFF CLOSET 0.0000
-1.1461 OFF HALLWAY 0.0000
-1.1461 OFF KITCHEN 0.0000
-1.1461 OFF LIVING 0.0000
-1.1461 OFF PANTRY 0.0000
-1.1461 ON BATHROOM 0.0000
-1.1461 ON BEDROOM 0.0000
-1.1461 ON CLOSET 0.0000
-1.1461 ON HALLWAY 0.0000
-1.1461 ON KITCHEN 0.0000
-1.1461 ON LIVING 0.0000
-1.1461 ON PANTRY 0.0000
-0.3010 PANTRY LIGHTS 0.0000
-0.3010 ROOM LIGHTS 0.0000

\3-grams:
-1.1461 <s> OFF BATHROOM
-1.1461 <s> OFF BEDROOM
-1.1461 <s> OFF CLOSET
-1.1461 <s> OFF HALLWAY
-1.1461 <s> OFF KITCHEN
-1.1461 <s> OFF LIVING
-1.1461 <s> OFF PANTRY
-1.1461 <s> ON BATHROOM
-1.1461 <s> ON BEDROOM
-1.1461 <s> ON CLOSET
-1.1461 <s> ON HALLWAY
-1.1461 <s> ON KITCHEN
-1.1461 <s> ON LIVING
-1.1461 <s> ON PANTRY
-0.3010 BATHROOM LIGHTS </s>
-0.3010 BEDROOM LIGHTS </s>
-0.3010 CLOSET LIGHTS </s>
-0.3010 HALLWAY LIGHTS </s>
-0.3010 KITCHEN LIGHTS </s>
-0.3010 LIVING ROOM LIGHTS
-0.3010 OFF BATHROOM LIGHTS
-0.3010 OFF BEDROOM LIGHTS
-0.3010 OFF CLOSET LIGHTS
-0.3010 OFF HALLWAY LIGHTS
-0.3010 OFF KITCHEN LIGHTS
-0.3010 OFF LIVING ROOM
-0.3010 OFF PANTRY LIGHTS
-0.3010 ON BATHROOM LIGHTS
-0.3010 ON BEDROOM LIGHTS
-0.3010 ON CLOSET LIGHTS
-0.3010 ON HALLWAY LIGHTS
-0.3010 ON KITCHEN LIGHTS
-0.3010 ON LIVING ROOM
-0.3010 ON PANTRY LIGHTS
-0.3010 PANTRY LIGHTS </s>
-0.3010 ROOM LIGHTS </s>

\end\